#include "model_utils.h"

// Define layer0 weights
float layer0_weights[16] = {
    -0.08466117829084396,
    0.5169710516929626,
    0.18730637431144714,
    0.5202388167381287,
    0.31740641593933105,
    -0.09392301738262177,
    0.3741433918476105,
    -0.15243594348430634,
    0.17482277750968933,
    0.3164679706096649,
    0.12593820691108704,
    0.5449357628822327,
    -0.09343516081571579,
    -0.06662387400865555,
    0.11048824340105057,
    0.3304210305213928
};

// Define layer0 biases
float layer0_biases[16] = {
    0.0,
    0.1199512630701065,
    -0.19832555949687958,
    0.08835164457559586,
    -0.35505935549736023,
    0.5065745711326599,
    -1.0109870433807373,
    0.6179102063179016,
    0.08618374913930893,
    -0.733559250831604,
    -0.2966330945491791,
    -0.9711872935295105,
    0.0,
    0.0,
    -0.2532293200492859,
    0.10351549088954926
};

// Define layer1 weights
float layer1_weights[256] = {
    -0.061993420124053955,
    0.017418019473552704,
    -0.08219058066606522,
    0.22287729382514954,
    -0.09719447791576385,
    -0.0885627418756485,
    0.042768754065036774,
    -0.1770808845758438,
    -0.0369139201939106,
    -0.14314574003219604,
    0.011612662114202976,
    -0.19957388937473297,
    0.013171988539397717,
    -0.07820238918066025,
    -0.10588943213224411,
    0.05158834531903267,
    0.24073775112628937,
    0.0754028931260109,
    0.14288531243801117,
    -0.12223230302333832,
    0.1369311660528183,
    -0.15721392631530762,
    0.04842663183808327,
    0.12749166786670685,
    0.003379385219886899,
    0.14170266687870026,
    0.016065845265984535,
    0.14646369218826294,
    -0.08988606184720993,
    0.0002761835930868983,
    -0.10017887502908707,
    -0.102717325091362,
    0.01725940965116024,
    0.23738573491573334,
    -0.027558181434869766,
    0.1759607344865799,
    -0.18495967984199524,
    0.33873099088668823,
    -0.5057522654533386,
    0.05382118001580238,
    0.18840591609477997,
    -0.3392745852470398,
    -0.19564960896968842,
    -0.3782941699028015,
    0.18822923302650452,
    0.04261195287108421,
    -0.1427375227212906,
    0.09752969443798065,
    -0.04427250847220421,
    0.006060883402824402,
    0.018465278670191765,
    -0.08189966529607773,
    -0.1545650213956833,
    -0.14634059369564056,
    0.16887938976287842,
    -0.03653630241751671,
    -0.08442790061235428,
    -0.03761766105890274,
    0.03301668539643288,
    -0.0448768250644207,
    0.0009931019740179181,
    -0.018319135531783104,
    -0.061423659324645996,
    0.03786662220954895,
    0.015161882154643536,
    -0.07333965599536896,
    -0.014399057254195213,
    -0.3832837641239166,
    0.0027234710287302732,
    0.32146045565605164,
    0.09206171333789825,
    0.019446905702352524,
    -0.09740063548088074,
    -0.1705072522163391,
    0.14552611112594604,
    -0.07463636249303818,
    0.22898058593273163,
    -0.13454848527908325,
    -0.05160290002822876,
    -0.05068012326955795,
    0.002542670350521803,
    -0.0804515928030014,
    0.16836898028850555,
    0.02463092841207981,
    0.05178747698664665,
    -0.055129166692495346,
    -0.09125135093927383,
    -0.0353839248418808,
    -0.043923649936914444,
    -0.05470051243901253,
    0.017378486692905426,
    0.14490197598934174,
    0.19275693595409393,
    0.06820595264434814,
    0.010374593548476696,
    -0.1081448346376419,
    0.018780255690217018,
    0.29043880105018616,
    -0.12084106355905533,
    0.16584917902946472,
    -0.06684655696153641,
    -0.02370406873524189,
    -0.3587886393070221,
    0.07433409988880157,
    0.05423208698630333,
    -0.2804676592350006,
    -0.19616279006004333,
    -0.6360663175582886,
    -0.17783509194850922,
    -0.039231475442647934,
    -0.17921751737594604,
    0.11369402706623077,
    -0.15937170386314392,
    -0.037929851561784744,
    -0.13540402054786682,
    0.11067183315753937,
    0.020238762721419334,
    -0.07066356390714645,
    -0.1728670299053192,
    0.07356242835521698,
    -0.003302900120615959,
    0.11300832033157349,
    0.03344167768955231,
    -0.029301319271326065,
    -0.0654945969581604,
    -0.04225127398967743,
    -0.14815150201320648,
    -0.10687637329101562,
    0.12919466197490692,
    -0.04151243716478348,
    0.16443128883838654,
    0.03310375288128853,
    0.03180903568863869,
    0.03181008994579315,
    0.2211739420890808,
    0.050462111830711365,
    -0.04404725506901741,
    0.06573829054832458,
    0.016561919823288918,
    0.22633914649486542,
    -0.1036951094865799,
    -0.005461267661303282,
    -0.03220058232545853,
    0.04092388600111008,
    0.13488294184207916,
    0.006231564562767744,
    0.018183903768658638,
    -0.14890003204345703,
    0.1269678920507431,
    -0.14397741854190826,
    -0.05347156152129173,
    -0.04803774878382683,
    -0.09657574445009232,
    -0.103816919028759,
    0.044861312955617905,
    -0.3386813998222351,
    -0.00482060806825757,
    -0.02398989163339138,
    0.03400593623518944,
    -0.07013372331857681,
    0.14703208208084106,
    0.2084113508462906,
    0.06946047395467758,
    0.05404980853199959,
    0.0688839852809906,
    -0.5139917731285095,
    -0.6715651750564575,
    -0.673863410949707,
    0.15037506818771362,
    -0.14537744224071503,
    -0.19113901257514954,
    -0.3869570195674896,
    0.01871640235185623,
    -0.03665010631084442,
    -0.06575816124677658,
    0.24981077015399933,
    0.03254317864775658,
    0.20774652063846588,
    -0.12771926820278168,
    0.21052730083465576,
    -0.18441924452781677,
    0.14451350271701813,
    -0.3000938594341278,
    0.1133270263671875,
    0.16351516544818878,
    -0.36366331577301025,
    -0.14416173100471497,
    -0.44498541951179504,
    0.02299264632165432,
    -0.1280125230550766,
    -0.05473800003528595,
    0.07247043401002884,
    0.06624811142683029,
    -0.0004824622010346502,
    -0.08386895060539246,
    -0.08366279304027557,
    0.0060321916826069355,
    -0.08039724081754684,
    -0.08600133657455444,
    -0.01671961508691311,
    0.14827148616313934,
    -0.17483817040920258,
    -0.04177797958254814,
    0.025605488568544388,
    0.10541286319494247,
    -0.011224746704101562,
    0.04244730994105339,
    0.080116406083107,
    -0.0866227000951767,
    0.19917325675487518,
    -0.07380180060863495,
    0.2728019058704376,
    -0.3226281702518463,
    0.0619095079600811,
    -0.4183378219604492,
    0.05301954597234726,
    -0.007694550324231386,
    -0.28772416710853577,
    -0.009722104296088219,
    -0.4441502094268799,
    0.14935827255249023,
    0.07029538601636887,
    -0.1358911246061325,
    0.2856447994709015,
    0.08328993618488312,
    -0.3094313442707062,
    -0.07434593886137009,
    -0.04902179539203644,
    -0.15755604207515717,
    0.018666470423340797,
    -0.047522079199552536,
    0.3133092224597931,
    0.03486005216836929,
    -0.10490400344133377,
    -0.03792320191860199,
    0.0898897647857666,
    0.09674877673387527,
    0.026464400812983513,
    0.03633178025484085,
    -0.19402946531772614,
    0.02517876960337162,
    -0.12612776458263397,
    0.08594763278961182,
    -0.07331223040819168,
    0.19488243758678436,
    0.03018331713974476,
    0.3071565330028534,
    0.19957426190376282,
    -0.009104072116315365,
    0.4572403132915497,
    0.04423074051737785,
    0.33682170510292053,
    -0.056093521416187286,
    0.09481214731931686,
    0.07847560197114944,
    0.0075708068907260895
};

// Define layer1 biases
float layer1_biases[16] = {
    0.1848759651184082,
    -0.15571238100528717,
    0.27582383155822754,
    0.0,
    0.19848483800888062,
    0.11163903772830963,
    0.30183422565460205,
    0.11654006689786911,
    -0.09590787440538406,
    0.0,
    0.44337961077690125,
    0.21778671443462372,
    0.0,
    0.22059012949466705,
    0.2542903423309326,
    -0.49571555852890015
};

// Define layer2 weights
float layer2_weights[16] = {
    -0.3436758518218994,
    0.26181140542030334,
    0.8683705925941467,
    -0.06278832256793976,
    -0.4352574646472931,
    -0.04720362275838852,
    0.9408079981803894,
    0.14346428215503693,
    0.2801491320133209,
    0.14550606906414032,
    -1.2202870845794678,
    0.8008629083633423,
    0.08564507216215134,
    0.8585789799690247,
    -0.5171682834625244,
    0.8019664883613586
};

// Define layer2 biases
float layer2_biases[1] = {
    -1.1018494367599487
};

